<?xml version="1.0"?>
<!----------------------------------------------------------------------------
  25x15 Mouth detector computed with 7000 positive samples

//////////////////////////////////////////////////////////////////////////
| Contributors License Agreement
| IMPORTANT: READ BEFORE DOWNLOADING, COPYING, INSTALLING OR USING.
|   By downloading, copying, installing or using the software you agree 
|   to this license.
|   If you do not agree to this license, do not download, install,
|   copy or use the software.
|
| Copyright (c) 2008, Modesto Castrillon-Santana (SIANI, University of
| Las Palmas de Gran Canaria, Spain).
|  All rights reserved.
|
| Redistribution and use in source and binary forms, with or without
| modification, are permitted provided that the following conditions are
| met:
|
|    * Redistributions of source code must retain the above copyright
|       notice, this list of conditions and the following disclaimer.
|    * Redistributions in binary form must reproduce the above
|      copyright notice, this list of conditions and the following
|      disclaimer in the documentation and/or other materials provided
|      with the distribution.  
|    * The name of Contributor may not used to endorse or promote products 
|      derived from this software without specific prior written permission.
|
| THIS SOFTWARE IS PROVIDED BY THE COPYRIGHT HOLDERS AND CONTRIBUTORS
| "AS IS" AND ANY EXPRESS OR IMPLIED WARRANTIES, INCLUDING, BUT NOT
| LIMITED TO, THE IMPLIED WARRANTIES OF MERCHANTABILITY AND FITNESS FOR
| A PARTICULAR PURPOSE ARE DISCLAIMED. IN NO EVENT SHALL THE
| CONTRIBUTORS BE LIABLE FOR ANY DIRECT, INDIRECT, INCIDENTAL, SPECIAL,
| EXEMPLARY, OR CONSEQUENTIAL DAMAGES (INCLUDING, BUT NOT LIMITED TO,
| PROCUREMENT OF SUBSTITUTE GOODS OR SERVICES; LOSS OF USE, DATA, OR
| PROFITS; OR BUSINESS INTERRUPTION) HOWEVER CAUSED AND ON ANY THEORY OF
| LIABILITY, WHETHER IN CONTRACT, STRICT LIABILITY, OR TORT (INCLUDING
| NEGLIGENCE OR OTHERWISE) ARISING IN ANY WAY OUT OF THE USE OF THIS
| SOFTWARE, EVEN IF ADVISED OF THE POSSIBILITY OF SUCH DAMAGE.  Back to
| Top
//////////////////////////////////////////////////////////////////////////

RESEARCH USE:
If you are using any of the detectors or involved ideas please cite one of these papers:

@ARTICLE{Castrillon07-jvci,
  author =       "Castrill\'on Santana, M. and D\'eniz Su\'arez, O. and Hern\'andez Tejera, M. and Guerra Artal, C.",
  title =        "ENCARA2: Real-time Detection of Multiple Faces at Different Resolutions in Video Streams",
  journal =      "Journal of Visual Communication and Image Representation",
  year =         "2007",
  vol =          "18",
  issue =        "2",
  month =        "April",
  pages =        "130-140"
}

@INPROCEEDINGS{Castrillon07-swb,
  author =       "Castrill\'on Santana, M. and D\'eniz Su\'arez, O. and Hern\'andez Sosa, D. and Lorenzo Navarro, J. ",
  title =        "Using Incremental Principal Component Analysis to Learn a Gender Classifier Automatically",
  booktitle =    "1st Spanish Workshop on Biometrics",
  year =         "2007",
  month =        "June",
  address =      "Girona, Spain",
  file = F
}

A comparison of this and other face related classifiers can be found in:

@InProceedings{Castrillon08a-visapp,
 'athor =       "Modesto Castrill\'on-Santana and O. D\'eniz-Su\'arez, L. Ant\'on-Canal\'{\i}s and J. Lorenzo-Navarro",
  title =        "Face and Facial Feature Detection Evaluation"
  booktitle =    "Third International Conference on Computer Vision Theory and Applications, VISAPP08"
  year =         "2008",
  month =        "January"
}

More information can be found at http://mozart.dis.ulpgc.es/Gias/modesto_eng.html or in the papers.

COMMERCIAL USE:
If you have any commercial interest in this work please contact 
mcastrillon@iusiani.ulpgc.es
------------------------------------------------------------------------>
<opencv_storage>
<classifier_Boca2 type_id="opencv-haar-classifier">
  <size>
    25 15</size>
  <stages>
    <_>
      <!-- stage 0 -->
      <trees>
        <_>
          <!-- tree 0 -->
          <_>
            <!-- root node -->
            <feature>
              <rects>
                <_>
                  0 2 25 9 -1.</_>
                <_>
                  0 5 25 3 3.</_></rects>
              <tilted>0</tilted></feature>
            <threshold>-0.1844173073768616</threshold>
            <left_val>0.8475226163864136</left_val>
            <right_val>-0.5172541141510010</right_val></_></_>
        <_>
          <!-- tree 1 -->
          <_>
            <!-- root node -->
            <feature>
              <rects>
                <_>
                  0 1 25 8 -1.</_>
                <_>
                  0 3 25 4 2.</_></rects>
              <tilted>0</tilted></feature>
            <threshold>-0.1402802020311356</threshold>
            <left_val>0.7662292718887329</left_val>
            <right_val>-0.2058840990066528</right_val></_></_>
        <_>
          <!-- tree 2 -->
          <_>
            <!-- root node -->
            <feature>
              <rects>
                <_>
                  4 5 17 6 -1.</_>
                <_>
                  4 7 17 2 3.</_></rects>
              <tilted>0</tilted></feature>
            <threshold>-0.0965902805328369</threshold>
            <left_val>0.8099955916404724</left_val>
            <right_val>-0.1680077016353607</right_val></_></_>
        <_>
          <!-- tree 3 -->
          <_>
            <!-- root node -->
            <feature>
              <rects>
                <_>
                  7 4 11 6 -1.</_>
                <_>
                  7 6 11 2 3.</_></rects>
              <tilted>0</tilted></feature>
            <threshold>0.0766362473368645</threshold>
            <left_val>-0.1485491991043091</left_val>
            <right_val>0.8404538035392761</right_val></_></_>
        <_>
          <!-- tree 4 -->
          <_>
            <!-- root node -->
            <feature>
              <rects>
                <_>
                  1 3 22 6 -1.</_>
                <_>
                  1 5 22 2 3.</_></rects>
              <tilted>0</tilted></feature>
            <threshold>-0.1498932987451553</threshold>
            <left_val>0.7740730047225952</left_val>
            <right_val>-0.1733569949865341</right_val></_></_>
        <_>
          <!-- tree 5 -->
          <_>
            <!-- root node -->
            <feature>
              <rects>
                <_>
                  9 5 12 5 -1.</_>
                <_>
                  9 5 6 5 2.</_></rects>
              <tilted>0</tilted></feature>
            <threshold>0.0192478392273188</threshold>
            <left_val>-0.0870369970798492</left_val>
            <right_val>0.1309517025947571</right_val></_></_>
        <_>
          <!-- tree 6 -->
          <_>
            <!-- root node -->
            <feature>
              <rects>
                <_>
                  3 5 14 6 -1.</_>
                <_>
                  10 5 7 6 2.</_></rects>
              <tilted>0</tilted></feature>
            <threshold>0.0803852230310440</threshold>
            <left_val>-0.1951358020305634</left_val>
            <right_val>0.5516005158424377</right_val></_></_>
        <_>
          <!-- tree 7 -->
          <_>
            <!-- root node -->
            <feature>
              <rects>
                <_>
                  1 5 23 2 -1.</_>
                <_>
                  1 6 23 1 2.</_></rects>
              <tilted>0</tilted></feature>
            <threshold>-0.0277388803660870</threshold>
            <left_val>0.6678745150566101</left_val>
            <right_val>-0.1701001971960068</right_val></_></_>
        <_>
          <!-- tree 8 -->
          <_>
            <!-- root node -->
            <feature>
              <rects>
                <_>
                  5 2 15 9 -1.</_>
                <_>
                  10 2 5 9 3.</_></rects>
              <tilted>0</tilted></feature>
            <threshold>0.5130342841148377</threshold>
            <left_val>0.0185191202908754</left_val>
            <right_val>-1.2458439941406250e+003</right_val></_></_>
        <_>
          <!-- tree 9 -->
          <_>
            <!-- root node -->
            <feature>
              <rects>
                <_>
                  17 3 8 12 -1.</_>
                <_>
                  17 9 8 6 2.</_></rects>
              <tilted>0</tilted></feature>
            <threshold>-0.0378230996429920</threshold>
            <left_val>-0.5109310746192932</left_val>
            <right_val>0.1763916015625000</right_val></_></_>
        <_>
          <!-- tree 10 -->
          <_>
            <!-- root node -->
            <feature>
              <rects>
                <_>
                  0 6 2 8 -1.</_>
                <_>
                  0 6 1 4 2.</_>
                <_>
                  1 10 1 4 2.</_></rects>
              <tilted>0</tilted></feature>
            <threshold>5.3870491683483124e-005</threshold>
            <left_val>-0.2686778903007507</left_val>
            <right_val>0.3096840977668762</right_val></_></_>
        <_>
          <!-- tree 11 -->
          <_>
            <!-- root node -->
            <feature>
              <rects>
                <_>
                  4 3 17 9 -1.</_>
                <_>
                  4 6 17 3 3.</_></rects>
              <tilted>0</tilted></feature>
            <threshold>0.1210516020655632</threshold>
            <left_val>-0.1692627072334290</left_val>
            <right_val>0.5698838233947754</right_val></_></_>
        <_>
          <!-- tree 12 -->
          <_>
            <!-- root node -->
            <feature>
              <rects>
                <_>
                  1 11 3 1 -1.</_>
                <_>
                  2 12 1 1 3.</_></rects>
              <tilted>1</tilted></feature>
            <threshold>2.6792760472744703e-003</threshold>
            <left_val>0.1514434963464737</left_val>
            <right_val>-0.6196162104606628</right_val></_></_>
        <_>
          <!-- tree 13 -->
          <_>
            <!-- root node -->
            <feature>
              <rects>
                <_>
                  7 6 11 6 -1.</_>
                <_>
                  7 8 11 2 3.</_></rects>
              <tilted>0</tilted></feature>
            <threshold>-0.0847370475530624</threshold>
            <left_val>0.7402430772781372</left_val>
            <right_val>-0.1280115991830826</right_val></_></_></trees>
      <stage_threshold>-1.6669340133666992</stage_threshold>
      <parent>-1</parent>
      <next>-1</next></_>
    <_>
      <!-- stage 1 -->
      <trees>
        <_>
          <!-- tree 0 -->
          <_>
            <!-- root node -->
            <feature>
              <rects>
                <_>
                  0 2 25 9 -1.</_>
                <_>
                  0 5 25 3 3.</_></rects>
              <tilted>0</tilted></feature>
            <threshold>-0.2484831959009171</threshold>
            <left_val>0.8203858137130737</left_val>
            <right_val>-0.4328550100326538</right_val></_></_>
        <_>
          <!-- tree 1 -->
          <_>
            <!-- root node -->
            <feature>
              <rects>
                <_>
                  3 2 19 6 -1.</_>
                <_>
                  3 4 19 2 3.</_></rects>
              <tilted>0</tilted></feature>
            <threshold>-0.1311814039945602</threshold>
            <left_val>0.8260604143142700</left_val>
            <right_val>-0.1587921977043152</right_val></_></_>
        <_>
          <!-- tree 2 -->
          <_>
            <!-- root node -->
            <feature>
              <rects>
                <_>
                  1 3 23 9 -1.</_>
                <_>
                  1 6 23 3 3.</_></rects>
              <tilted>0</tilted></feature>
            <threshold>-0.2773303091526032</threshold>
            <left_val>0.8174746036529541</left_val>
            <right_val>-0.1921885013580322</right_val></_></_>
        <_>
          <!-- tree 3 -->
          <_>
            <!-- root node -->
            <feature>
              <rects>
                <_>
                  0 5 25 4 -1.</_>
                <_>
                  0 7 25 2 2.</_></rects>
              <tilted>0</tilted></feature>
            <threshold>0.1030670031905174</threshold>
            <left_val>-0.1110853031277657</left_val>
            <right_val>0.6749852895736694</right_val></_></_>
        <_>
          <!-- tree 4 -->
          <_>
            <!-- root node -->
            <feature>
              <rects>
                <_>
                  5 4 15 4 -1.</_>
                <_>
                  5 5 15 2 2.</_></rects>
              <tilted>0</tilted></feature>
            <threshold>0.0216242205351591</threshold>
            <left_val>-0.2096686959266663</left_val>
            <right_val>0.5899624228477478</right_val></_></_>
        <_>
          <!-- tree 5 -->
          <_>
            <!-- root node -->
            <feature>
              <rects>
                <_>
                  22 11 3 4 -1.</_>
                <_>
                  22 12 3 2 2.</_></rects>
              <tilted>0</tilted></feature>
            <threshold>-4.8787947744131088e-003</threshold>
            <left_val>-0.6874719262123108</left_val>
            <right_val>0.1239638999104500</right_val></_></_>
        <_>
          <!-- tree 6 -->
          <_>
            <!-- root node -->
            <feature>
              <rects>
                <_>
                  0 0 5 8 -1.</_>
                <_>
                  0 4 5 4 2.</_></rects>
              <tilted>0</tilted></feature>
            <threshold>-3.5487458808347583e-004</threshold>
            <left_val>0.2324506044387817</left_val>
            <right_val>-0.4476124942302704</right_val></_></_>
        <_>
          <!-- tree 7 -->
          <_>
            <!-- root node -->
            <feature>
              <rects>
                <_>
                  17 3 8 12 -1.</_>
                <_>
                  17 9 8 6 2.</_></rects>
              <tilted>0</tilted></feature>
            <threshold>-0.1287606060504913</threshold>
            <left_val>-0.8039392828941345</left_val>
            <right_val>0.0400546491146088</right_val></_></_>
        <_>
          <!-- tree 8 -->
          <_>
            <!-- root node -->
            <feature>
              <rects>
                <_>
                  3 0 1 3 -1.</_>
                <_>
                  2 1 1 1 3.</_></rects>
              <tilted>1</tilted></feature>
            <threshold>3.2592678908258677e-003</threshold>
            <left_val>0.1155537962913513</left_val>
            <right_val>-0.7224652171134949</right_val></_></_>
        <_>
          <!-- tree 9 -->
          <_>
            <!-- root node -->
            <feature>
              <rects>
                <_>
                  20 12 5 3 -1.</_>
                <_>
                  20 13 5 1 3.</_></rects>
              <tilted>0</tilted></feature>
            <threshold>7.4245398864150047e-003</threshold>
            <left_val>0.0723014399409294</left_val>
            <right_val>-0.7296339869499207</right_val></_></_>
        <_>
          <!-- tree 10 -->
          <_>
            <!-- root node -->
            <feature>
              <rects>
                <_>
                  1 11 2 4 -1.</_>
                <_>
                  1 12 2 2 2.</_></rects>
              <tilted>0</tilted></feature>
            <threshold>-3.1583269592374563e-003</threshold>
            <left_val>-0.6948425769805908</left_val>
            <right_val>0.1242405995726585</right_val></_></_>
        <_>
          <!-- tree 11 -->
          <_>
            <!-- root node -->
            <feature>
              <rects>
                <_>
                  16 3 9 12 -1.</_>
                <_>
                  16 9 9 6 2.</_></rects>
              <tilted>0</tilted></feature>
            <threshold>8.0146975815296173e-003</threshold>
            <left_val>-0.2059015929698944</left_val>
            <right_val>0.0924882069230080</right_val></_></_>
        <_>
          <!-- tree 12 -->
          <_>
            <!-- root node -->
            <feature>
              <rects>
                <_>
                  7 8 11 6 -1.</_>
                <_>
                  7 10 11 2 3.</_></rects>
              <tilted>0</tilted></feature>
            <threshold>-0.0563681907951832</threshold>
            <left_val>0.6078336834907532</left_val>
            <right_val>-0.1367606073617935</right_val></_></_>
        <_>
          <!-- tree 13 -->
          <_>
            <!-- root node -->
            <feature>
              <rects>
                <_>
                  7 6 11 6 -1.</_>
                <_>
                  7 8 11 2 3.</_></rects>
              <tilted>0</tilted></feature>
            <threshold>-0.0816024765372276</threshold>
            <left_val>0.6705654263496399</left_val>
            <right_val>-0.0936432480812073</right_val></_></_>
        <_>
          <!-- tree 14 -->
          <_>
            <!-- root node -->
            <feature>
              <rects>
                <_>
                  8 7 9 6 -1.</_>
                <_>
                  8 9 9 2 3.</_></rects>
              <tilted>0</tilted></feature>
            <threshold>0.0646917894482613</threshold>
            <left_val>-0.1234629005193710</left_val>
            <right_val>0.5842785835266113</right_val></_></_></trees>
      <stage_threshold>-1.4688390493392944</stage_threshold>
      <parent>0</parent>
      <next>-1</next></_>
    <_>
      <!-- stage 2 -->
      <trees>
        <_>
          <!-- tree 0 -->
          <_>
            <!-- root node -->
            <feature>
              <rects>
                <_>
                  0 2 25 8 -1.</_>
                <_>
                  0 4 25 4 2.</_></rects>
              <tilted>0</tilted></feature>
            <threshold>-0.1462730020284653</threshold>
            <left_val>0.5586630702018738</left_val>
            <right_val>-0.3992153108119965</right_val></_></_>
        <_>
          <!-- tree 1 -->
          <_>
            <!-- root node -->
            <feature>
              <rects>
                <_>
                  1 3 23 6 -1.</_>
                <_>
                  1 5 23 2 3.</_></rects>
              <tilted>0</tilted></feature>
            <threshold>-0.2061599045991898</threshold>
            <left_val>0.4421797096729279</left_val>
            <right_val>-0.1030227988958359</right_val></_></_>
        <_>
          <!-- tree 2 -->
          <_>
            <!-- root node -->
            <feature>
              <rects>
                <_>
                  0 10 5 3 -1.</_>
                <_>
                  0 11 5 1 3.</_></rects>
              <tilted>0</tilted></feature>
            <threshold>-4.7249607741832733e-003</threshold>
            <left_val>-0.7357025146484375</left_val>
            <right_val>0.1387324929237366</right_val></_></_>
        <_>
          <!-- tree 3 -->
          <_>
            <!-- root node -->
            <feature>
              <rects>
                <_>
                  19 6 6 3 -1.</_>
                <_>
                  19 6 3 3 2.</_></rects>
              <tilted>0</tilted></feature>
            <threshold>0.0137410899624228</threshold>
            <left_val>-0.0708092823624611</left_val>
            <right_val>0.3033343851566315</right_val></_></_>
        <_>
          <!-- tree 4 -->
          <_>
            <!-- root node -->
            <feature>
              <rects>
                <_>
                  0 6 6 3 -1.</_>
                <_>
                  3 6 3 3 2.</_></rects>
              <tilted>0</tilted></feature>
            <threshold>-0.0112742101773620</threshold>
            <left_val>0.4195410013198853</left_val>
            <right_val>-0.2396553009748459</right_val></_></_>
        <_>
          <!-- tree 5 -->
          <_>
            <!-- root node -->
            <feature>
              <rects>
                <_>
                  23 0 2 1 -1.</_>
                <_>
                  23 0 1 1 2.</_></rects>
              <tilted>1</tilted></feature>
            <threshold>-2.3130481131374836e-003</threshold>
            <left_val>-0.6050372719764710</left_val>
            <right_val>0.1228410974144936</right_val></_></_>
        <_>
          <!-- tree 6 -->
          <_>
            <!-- root node -->
            <feature>
              <rects>
                <_>
                  2 0 1 2 -1.</_>
                <_>
                  2 0 1 1 2.</_></rects>
              <tilted>1</tilted></feature>
            <threshold>-1.4034430496394634e-003</threshold>
            <left_val>-0.5672897100448608</left_val>
            <right_val>0.1427980959415436</right_val></_></_>
        <_>
          <!-- tree 7 -->
          <_>
            <!-- root node -->
            <feature>
              <rects>
                <_>
                  3 5 19 6 -1.</_>
                <_>
                  3 7 19 2 3.</_></rects>
              <tilted>0</tilted></feature>
            <threshold>-0.1514761000871658</threshold>
            <left_val>0.5836464762687683</left_val>
            <right_val>-0.1484746932983398</right_val></_></_>
        <_>
          <!-- tree 8 -->
          <_>
            <!-- root node -->
            <feature>
              <rects>
                <_>
                  8 3 9 9 -1.</_>
                <_>
                  8 6 9 3 3.</_></rects>
              <tilted>0</tilted></feature>
            <threshold>0.1368988007307053</threshold>
            <left_val>-0.1161397993564606</left_val>
            <right_val>0.6543955802917481</right_val></_></_>
        <_>
          <!-- tree 9 -->
          <_>
            <!-- root node -->
            <feature>
              <rects>
                <_>
                  22 8 3 4 -1.</_>
                <_>
                  22 9 3 2 2.</_></rects>
              <tilted>0</tilted></feature>
            <threshold>-2.9949969612061977e-003</threshold>
            <left_val>-0.3638966977596283</left_val>
            <right_val>0.1237104982137680</right_val></_></_>
        <_>
          <!-- tree 10 -->
          <_>
            <!-- root node -->
            <feature>
              <rects>
                <_>
                  0 8 3 4 -1.</_>
                <_>
                  0 9 3 2 2.</_></rects>
              <tilted>0</tilted></feature>
            <threshold>-4.4532008469104767e-003</threshold>
            <left_val>-0.6961433887481690</left_val>
            <right_val>0.0981422588229179</right_val></_></_>
        <_>
          <!-- tree 11 -->
          <_>
            <!-- root node -->
            <feature>
              <rects>
                <_>
                  21 11 4 4 -1.</_>
                <_>
                  21 12 4 2 2.</_></rects>
              <tilted>0</tilted></feature>
            <threshold>0.0105828698724508</threshold>
            <left_val>0.0345492511987686</left_val>
            <right_val>-0.7938190102577210</right_val></_></_>
        <_>
          <!-- tree 12 -->
          <_>
            <!-- root node -->
            <feature>
              <rects>
                <_>
                  0 11 4 4 -1.</_>
                <_>
                  0 12 4 2 2.</_></rects>
              <tilted>0</tilted></feature>
            <threshold>-4.0471251122653484e-003</threshold>
            <left_val>-0.6023471951484680</left_val>
            <right_val>0.1011902987957001</right_val></_></_>
        <_>
          <!-- tree 13 -->
          <_>
            <!-- root node -->
            <feature>
              <rects>
                <_>
                  21 1 4 3 -1.</_>
                <_>
                  21 2 4 1 3.</_></rects>
              <tilted>0</tilted></feature>
            <threshold>-8.2949772477149963e-003</threshold>
            <left_val>-0.5867254137992859</left_val>
            <right_val>0.0380274914205074</right_val></_></_>
        <_>
          <!-- tree 14 -->
          <_>
            <!-- root node -->
            <feature>
              <rects>
                <_>
                  1 5 23 4 -1.</_>
                <_>
                  1 6 23 2 2.</_></rects>
              <tilted>0</tilted></feature>
            <threshold>-0.0548263192176819</threshold>
            <left_val>0.3885084986686707</left_val>
            <right_val>-0.1499325931072235</right_val></_></_>
        <_>
          <!-- tree 15 -->
          <_>
            <!-- root node -->
            <feature>
              <rects>
                <_>
                  21 1 4 3 -1.</_>
                <_>
                  21 2 4 1 3.</_></rects>
              <tilted>0</tilted></feature>
            <threshold>0.0108870603144169</threshold>
            <left_val>0.0335692204535007</left_val>
            <right_val>-0.4139300882816315</right_val></_></_>
        <_>
          <!-- tree 16 -->
          <_>
            <!-- root node -->
            <feature>
              <rects>
                <_>
                  5 11 15 4 -1.</_>
                <_>
                  5 13 15 2 2.</_></rects>
              <tilted>0</tilted></feature>
            <threshold>0.0317596904933453</threshold>
            <left_val>-0.1446716040372849</left_val>
            <right_val>0.3929292857646942</right_val></_></_>
        <_>
          <!-- tree 17 -->
          <_>
            <!-- root node -->
            <feature>
              <rects>
                <_>
                  8 4 16 7 -1.</_>
                <_>
                  8 4 8 7 2.</_></rects>
              <tilted>0</tilted></feature>
            <threshold>-0.1149715036153793</threshold>
            <left_val>0.3143905997276306</left_val>
            <right_val>-0.0624889805912972</right_val></_></_>
        <_>
          <!-- tree 18 -->
          <_>
            <!-- root node -->
            <feature>
              <rects>
                <_>
                  2 5 21 7 -1.</_>
                <_>
                  9 5 7 7 3.</_></rects>
              <tilted>0</tilted></feature>
            <threshold>0.1136683002114296</threshold>
            <left_val>-0.1605478972196579</left_val>
            <right_val>0.3616985976696014</right_val></_></_>
        <_>
          <!-- tree 19 -->
          <_>
            <!-- root node -->
            <feature>
              <rects>
                <_>
                  21 1 4 3 -1.</_>
                <_>
                  21 2 4 1 3.</_></rects>
              <tilted>0</tilted></feature>
            <threshold>-0.0156902298331261</threshold>
            <left_val>-0.4519915878772736</left_val>
            <right_val>0.0175330992788076</right_val></_></_>
        <_>
          <!-- tree 20 -->
          <_>
            <!-- root node -->
            <feature>
              <rects>
                <_>
                  0 1 4 3 -1.</_>
                <_>
                  0 2 4 1 3.</_></rects>
              <tilted>0</tilted></feature>
            <threshold>-5.7343551889061928e-003</threshold>
            <left_val>-0.6261050105094910</left_val>
            <right_val>0.0791867673397064</right_val></_></_>
        <_>
          <!-- tree 21 -->
          <_>
            <!-- root node -->
            <feature>
              <rects>
                <_>
                  7 7 11 4 -1.</_>
                <_>
                  7 8 11 2 2.</_></rects>
              <tilted>0</tilted></feature>
            <threshold>-0.0284933000802994</threshold>
            <left_val>0.4782761931419373</left_val>
            <right_val>-0.1105927005410194</right_val></_></_>
        <_>
          <!-- tree 22 -->
          <_>
            <!-- root node -->
            <feature>
              <rects>
                <_>
                  1 5 23 4 -1.</_>
                <_>
                  1 7 23 2 2.</_></rects>
              <tilted>0</tilted></feature>
            <threshold>0.0994801074266434</threshold>
            <left_val>-0.1314031928777695</left_val>
            <right_val>0.3856512010097504</right_val></_></_>
        <_>
          <!-- tree 23 -->
          <_>
            <!-- root node -->
            <feature>
              <rects>
                <_>
                  21 0 3 1 -1.</_>
                <_>
                  22 1 1 1 3.</_></rects>
              <tilted>1</tilted></feature>
            <threshold>7.1515059098601341e-003</threshold>
            <left_val>0.0351089388132095</left_val>
            <right_val>-0.4466673135757446</right_val></_></_>
        <_>
          <!-- tree 24 -->
          <_>
            <!-- root node -->
            <feature>
              <rects>
                <_>
                  0 0 24 2 -1.</_>
                <_>
                  6 0 12 2 2.</_></rects>
              <tilted>0</tilted></feature>
            <threshold>-0.0216581299901009</threshold>
            <left_val>0.2951973080635071</left_val>
            <right_val>-0.1599867939949036</right_val></_></_>
        <_>
          <!-- tree 25 -->
          <_>
            <!-- root node -->
            <feature>
              <rects>
                <_>
                  21 0 3 1 -1.</_>
                <_>
                  22 1 1 1 3.</_></rects>
              <tilted>1</tilted></feature>
            <threshold>-2.5847610086202621e-003</threshold>
            <left_val>-0.1848125010728836</left_val>
            <right_val>0.0403376109898090</right_val></_></_>
        <_>
          <!-- tree 26 -->
          <_>
            <!-- root node -->
            <feature>
              <rects>
                <_>
                  4 0 1 3 -1.</_>
                <_>
                  3 1 1 1 3.</_></rects>
              <tilted>1</tilted></feature>
            <threshold>3.4448450896888971e-003</threshold>
            <left_val>0.0937914624810219</left_val>
            <right_val>-0.5252103805541992</right_val></_></_>
        <_>
          <!-- tree 27 -->
          <_>
            <!-- root node -->
            <feature>
              <rects>
                <_>
                  21 11 2 2 -1.</_>
                <_>
                  21 11 2 1 2.</_></rects>
              <tilted>1</tilted></feature>
            <threshold>-6.4085801132023335e-003</threshold>
            <left_val>-0.5205218195915222</left_val>
            <right_val>0.0489379800856113</right_val></_></_>
        <_>
          <!-- tree 28 -->
          <_>
            <!-- root node -->
            <feature>
              <rects>
                <_>
                  4 11 2 2 -1.</_>
                <_>
                  4 11 1 2 2.</_></rects>
              <tilted>1</tilted></feature>
            <threshold>3.9657680317759514e-003</threshold>
            <left_val>0.0804132223129272</left_val>
            <right_val>-0.5338221192359924</right_val></_></_>
        <_>
          <!-- tree 29 -->
          <_>
            <!-- root node -->
            <feature>
              <rects>
                <_>
                  11 0 3 4 -1.</_>
                <_>
                  11 2 3 2 2.</_></rects>
              <tilted>0</tilted></feature>
            <threshold>-0.0124114295467734</threshold>
            <left_val>0.3921220898628235</left_val>
            <right_val>-0.1128036007285118</right_val></_></_>
        <_>
          <!-- tree 30 -->
          <_>
            <!-- root node -->
            <feature>
              <rects>
                <_>
                  7 2 11 6 -1.</_>
                <_>
                  7 4 11 2 3.</_></rects>
              <tilted>0</tilted></feature>
            <threshold>0.0472588017582893</threshold>
            <left_val>-0.1115003973245621</left_val>
            <right_val>0.3410586118698120</right_val></_></_>
        <_>
          <!-- tree 31 -->
          <_>
            <!-- root node -->
            <feature>
              <rects>
                <_>
                  14 3 11 12 -1.</_>
                <_>
                  14 9 11 6 2.</_></rects>
              <tilted>0</tilted></feature>
            <threshold>-0.1790118962526321</threshold>
            <left_val>-0.7691854238510132</left_val>
            <right_val>0.0342351682484150</right_val></_></_></trees>
      <stage_threshold>-1.6107089519500732</stage_threshold>
      <parent>1</parent>
      <next>-1</next></_>
    <_>
      <!-- stage 3 -->
      <trees>
        <_>
          <!-- tree 0 -->
          <_>
            <!-- root node -->
            <feature>
              <rects>
                <_>
                  0 2 25 9 -1.</_>
                <_>
                  0 5 25 3 3.</_></rects>
              <tilted>0</tilted></feature>
            <threshold>-0.3037447929382324</threshold>
            <left_val>0.6940072178840637</left_val>
            <right_val>-0.3429022133350372</right_val></_></_>
        <_>
          <!-- tree 1 -->
          <_>
            <!-- root node -->
            <feature>
              <rects>
                <_>
                  18 0 7 8 -1.</_>
                <_>
                  18 4 7 4 2.</_></rects>
              <tilted>0</tilted></feature>
            <threshold>-0.0269396603107452</threshold>
            <left_val>0.3583160936832428</left_val>
            <right_val>-0.3460992872714996</right_val></_></_>
        <_>
          <!-- tree 2 -->
          <_>
            <!-- root node -->
            <feature>
              <rects>
                <_>
                  2 6 14 8 -1.</_>
                <_>
                  2 6 7 4 2.</_>
                <_>
                  9 10 7 4 2.</_></rects>
              <tilted>0</tilted></feature>
            <threshold>-0.0367611981928349</threshold>
            <left_val>0.4141404926776886</left_val>
            <right_val>-0.2759157121181488</right_val></_></_>
        <_>
          <!-- tree 3 -->
          <_>
            <!-- root node -->
            <feature>
              <rects>
                <_>
                  5 4 15 4 -1.</_>
                <_>
                  5 6 15 2 2.</_></rects>
              <tilted>0</tilted></feature>
            <threshold>0.0809007883071899</threshold>
            <left_val>-0.1316754966974258</left_val>
            <right_val>0.6201664209365845</right_val></_></_>
        <_>
          <!-- tree 4 -->
          <_>
            <!-- root node -->
            <feature>
              <rects>
                <_>
                  1 6 20 4 -1.</_>
                <_>
                  1 8 20 2 2.</_></rects>
              <tilted>0</tilted></feature>
            <threshold>0.3599632084369659</threshold>
            <left_val>0.0130427796393633</left_val>
            <right_val>-1.4768909912109375e+003</right_val></_></_>
        <_>
          <!-- tree 5 -->
          <_>
            <!-- root node -->
            <feature>
              <rects>
                <_>
                  20 12 5 3 -1.</_>
                <_>
                  20 13 5 1 3.</_></rects>
              <tilted>0</tilted></feature>
            <threshold>-8.1685408949851990e-003</threshold>
            <left_val>-0.7659054994583130</left_val>
            <right_val>0.0697382912039757</right_val></_></_>
        <_>
          <!-- tree 6 -->
          <_>
            <!-- root node -->
            <feature>
              <rects>
                <_>
                  0 5 20 8 -1.</_>
                <_>
                  0 5 10 4 2.</_>
                <_>
                  10 9 10 4 2.</_></rects>
              <tilted>0</tilted></feature>
            <threshold>0.3474662005901337</threshold>
            <left_val>1.9912240095436573e-003</left_val>
            <right_val>-1.1641250000000000e+003</right_val></_></_>
        <_>
          <!-- tree 7 -->
          <_>
            <!-- root node -->
            <feature>
              <rects>
                <_>
                  8 5 9 6 -1.</_>
                <_>
                  8 7 9 2 3.</_></rects>
              <tilted>0</tilted></feature>
            <threshold>-0.0759418830275536</threshold>
            <left_val>0.5399538278579712</left_val>
            <right_val>-0.1487839072942734</right_val></_></_>
        <_>
          <!-- tree 8 -->
          <_>
            <!-- root node -->
            <feature>
              <rects>
                <_>
                  0 12 5 3 -1.</_>
                <_>
                  0 13 5 1 3.</_></rects>
              <tilted>0</tilted></feature>
            <threshold>5.8388649486005306e-003</threshold>
            <left_val>0.1037383005023003</left_val>
            <right_val>-0.7369204759597778</right_val></_></_>
        <_>
          <!-- tree 9 -->
          <_>
            <!-- root node -->
            <feature>
              <rects>
                <_>
                  1 6 23 2 -1.</_>
                <_>
                  1 7 23 1 2.</_></rects>
              <tilted>0</tilted></feature>
            <threshold>0.0281393304467201</threshold>
            <left_val>-0.1773975044488907</left_val>
            <right_val>0.4036171138286591</right_val></_></_>
        <_>
          <!-- tree 10 -->
          <_>
            <!-- root node -->
            <feature>
              <rects>
                <_>
                  0 12 5 3 -1.</_>
                <_>
                  0 13 5 1 3.</_></rects>
              <tilted>0</tilted></feature>
            <threshold>-4.8297052271664143e-003</threshold>
            <left_val>-0.6927062869071960</left_val>
            <right_val>0.0983039066195488</right_val></_></_>
        <_>
          <!-- tree 11 -->
          <_>
            <!-- root node -->
            <feature>
              <rects>
                <_>
                  2 2 21 6 -1.</_>
                <_>
                  2 4 21 2 3.</_></rects>
              <tilted>0</tilted></feature>
            <threshold>0.0494830012321472</threshold>
            <left_val>-0.1611070036888123</left_val>
            <right_val>0.3778787851333618</right_val></_></_>
        <_>
          <!-- tree 12 -->
          <_>
            <!-- root node -->
            <feature>
              <rects>
                <_>
                  0 0 6 6 -1.</_>
                <_>
                  0 3 6 3 2.</_></rects>
              <tilted>0</tilted></feature>
            <threshold>-5.9912791475653648e-003</threshold>
            <left_val>0.1866254061460495</left_val>
            <right_val>-0.3188109099864960</right_val></_></_>
        <_>
          <!-- tree 13 -->
          <_>
            <!-- root node -->
            <feature>
              <rects>
                <_>
                  23 1 2 3 -1.</_>
                <_>
                  23 2 2 1 3.</_></rects>
              <tilted>0</tilted></feature>
            <threshold>4.2185168713331223e-003</threshold>
            <left_val>0.0464860610663891</left_val>
            <right_val>-0.5277385115623474</right_val></_></_>
        <_>
          <!-- tree 14 -->
          <_>
            <!-- root node -->
            <feature>
              <rects>
                <_>
                  0 1 2 3 -1.</_>
                <_>
                  0 2 2 1 3.</_></rects>
              <tilted>0</tilted></feature>
            <threshold>3.5142239648848772e-003</threshold>
            <left_val>0.0854097232222557</left_val>
            <right_val>-0.6428748965263367</right_val></_></_>
        <_>
          <!-- tree 15 -->
          <_>
            <!-- root node -->
            <feature>
              <rects>
                <_>
                  23 9 2 4 -1.</_>
                <_>
                  23 10 2 2 2.</_></rects>
              <tilted>0</tilted></feature>
            <threshold>-5.3263967856764793e-003</threshold>
            <left_val>-0.5775855779647827</left_val>
            <right_val>0.0431523993611336</right_val></_></_>
        <_>
          <!-- tree 16 -->
          <_>
            <!-- root node -->
            <feature>
              <rects>
                <_>
                  6 7 13 6 -1.</_>
                <_>
                  6 9 13 2 3.</_></rects>
              <tilted>0</tilted></feature>
            <threshold>-0.0604910515248775</threshold>
            <left_val>0.5242627859115601</left_val>
            <right_val>-0.0940323770046234</right_val></_></_>
        <_>
          <!-- tree 17 -->
          <_>
            <!-- root node -->
            <feature>
              <rects>
                <_>
                  6 9 13 6 -1.</_>
                <_>
                  6 11 13 2 3.</_></rects>
              <tilted>0</tilted></feature>
            <threshold>-0.0361538194119930</threshold>
            <left_val>0.3967846930027008</left_val>
            <right_val>-0.1472809016704559</right_val></_></_>
        <_>
          <!-- tree 18 -->
          <_>
            <!-- root node -->
            <feature>
              <rects>
                <_>
                  0 9 2 4 -1.</_>
                <_>
                  0 10 2 2 2.</_></rects>
              <tilted>0</tilted></feature>
            <threshold>-2.6660619769245386e-003</threshold>
            <left_val>-0.6133422255516052</left_val>
            <right_val>0.0930378809571266</right_val></_></_>
        <_>
          <!-- tree 19 -->
          <_>
            <!-- root node -->
            <feature>
              <rects>
                <_>
                  7 9 11 2 -1.</_>
                <_>
                  7 10 11 1 2.</_></rects>
              <tilted>0</tilted></feature>
            <threshold>0.0116188395768404</threshold>
            <left_val>-0.1512337028980255</left_val>
            <right_val>0.3982878029346466</right_val></_></_>
        <_>
          <!-- tree 20 -->
          <_>
            <!-- root node -->
            <feature>
              <rects>
                <_>
                  0 7 1 4 -1.</_>
                <_>
                  0 8 1 2 2.</_></rects>
              <tilted>0</tilted></feature>
            <threshold>-2.0700409077107906e-003</threshold>
            <left_val>-0.5873665213584900</left_val>
            <right_val>0.1045975983142853</right_val></_></_>
        <_>
          <!-- tree 21 -->
          <_>
            <!-- root node -->
            <feature>
              <rects>
                <_>
                  7 7 11 4 -1.</_>
                <_>
                  7 8 11 2 2.</_></rects>
              <tilted>0</tilted></feature>
            <threshold>0.0161633398383856</threshold>
            <left_val>-0.1744432002305985</left_val>
            <right_val>0.3022876977920532</right_val></_></_>
        <_>
          <!-- tree 22 -->
          <_>
            <!-- root node -->
            <feature>
              <rects>
                <_>
                  0 0 2 3 -1.</_>
                <_>
                  0 1 2 1 3.</_></rects>
              <tilted>0</tilted></feature>
            <threshold>4.0656141936779022e-003</threshold>
            <left_val>0.0614023618400097</left_val>
            <right_val>-0.7527790069580078</right_val></_></_>
        <_>
          <!-- tree 23 -->
          <_>
            <!-- root node -->
            <feature>
              <rects>
                <_>
                  21 0 3 3 -1.</_>
                <_>
                  21 1 3 1 3.</_></rects>
              <tilted>0</tilted></feature>
            <threshold>5.2685341797769070e-003</threshold>
            <left_val>0.0408688895404339</left_val>
            <right_val>-0.3735448122024536</right_val></_></_>
        <_>
          <!-- tree 24 -->
          <_>
            <!-- root node -->
            <feature>
              <rects>
                <_>
                  1 0 3 3 -1.</_>
                <_>
                  1 1 3 1 3.</_></rects>
              <tilted>0</tilted></feature>
            <threshold>-5.7899882085621357e-003</threshold>
            <left_val>-0.7394943833351135</left_val>
            <right_val>0.0662814527750015</right_val></_></_></trees>
      <stage_threshold>-1.4169249534606934</stage_threshold>
      <parent>2</parent>
      <next>-1</next></_>
    <_>
      <!-- stage 4 -->
      <trees>
        <_>
          <!-- tree 0 -->
          <_>
            <!-- root node -->
            <feature>
              <rects>
                <_>
                  0 3 25 6 -1.</_>
                <_>
                  0 5 25 2 3.</_></rects>
              <tilted>0</tilted></feature>
            <threshold>-0.1588165014982224</threshold>
            <left_val>0.6068506240844727</left_val>
            <right_val>-0.3242625892162323</right_val></_></_>
        <_>
          <!-- tree 1 -->
          <_>
            <!-- root node -->
            <feature>
              <rects>
                <_>
                  21 6 4 3 -1.</_>
                <_>
                  21 6 2 3 2.</_></rects>
              <tilted>0</tilted></feature>
            <threshold>-8.7938820943236351e-003</threshold>
            <left_val>0.4573248028755188</left_val>
            <right_val>-0.1017730012536049</right_val></_></_>
        <_>
          <!-- tree 2 -->
          <_>
            <!-- root node -->
            <feature>
              <rects>
                <_>
                  0 6 4 3 -1.</_>
                <_>
                  2 6 2 3 2.</_></rects>
              <tilted>0</tilted></feature>
            <threshold>-6.9870590232312679e-003</threshold>
            <left_val>0.4850830137729645</left_val>
            <right_val>-0.2267037928104401</right_val></_></_>
        <_>
          <!-- tree 3 -->
          <_>
            <!-- root node -->
            <feature>
              <rects>
                <_>
                  4 6 17 3 -1.</_>
                <_>
                  4 7 17 1 3.</_></rects>
              <tilted>0</tilted></feature>
            <threshold>-0.0336670316755772</threshold>
            <left_val>0.5282006263732910</left_val>
            <right_val>-0.1476518064737320</right_val></_></_>
        <_>
          <!-- tree 4 -->
          <_>
            <!-- root node -->
            <feature>
              <rects>
                <_>
                  4 5 17 4 -1.</_>
                <_>
                  4 6 17 2 2.</_></rects>
              <tilted>0</tilted></feature>
            <threshold>0.0339032784104347</threshold>
            <left_val>-0.1224943995475769</left_val>
            <right_val>0.6063488125801086</right_val></_></_>
        <_>
          <!-- tree 5 -->
          <_>
            <!-- root node -->
            <feature>
              <rects>
                <_>
                  18 0 7 8 -1.</_>
                <_>
                  18 4 7 4 2.</_></rects>
              <tilted>0</tilted></feature>
            <threshold>-0.0125553002581000</threshold>
            <left_val>0.2014899998903275</left_val>
            <right_val>-0.3405551910400391</right_val></_></_>
        <_>
          <!-- tree 6 -->
          <_>
            <!-- root node -->
            <feature>
              <rects>
                <_>
                  0 3 9 12 -1.</_>
                <_>
                  0 9 9 6 2.</_></rects>
              <tilted>0</tilted></feature>
            <threshold>-0.0717855095863342</threshold>
            <left_val>-0.6580768227577210</left_val>
            <right_val>0.0890291035175323</right_val></_></_>
        <_>
          <!-- tree 7 -->
          <_>
            <!-- root node -->
            <feature>
              <rects>
                <_>
                  23 10 1 4 -1.</_>
                <_>
                  22 11 1 2 2.</_></rects>
              <tilted>1</tilted></feature>
            <threshold>-6.0321739874780178e-003</threshold>
            <left_val>-0.5769687891006470</left_val>
            <right_val>0.0549812912940979</right_val></_></_>
        <_>
          <!-- tree 8 -->
          <_>
            <!-- root node -->
            <feature>
              <rects>
                <_>
                  9 9 7 6 -1.</_>
                <_>
                  9 11 7 2 3.</_></rects>
              <tilted>0</tilted></feature>
            <threshold>-0.0305341891944408</threshold>
            <left_val>0.3657312095165253</left_val>
            <right_val>-0.1334034949541092</right_val></_></_>
        <_>
          <!-- tree 9 -->
          <_>
            <!-- root node -->
            <feature>
              <rects>
                <_>
                  22 9 3 6 -1.</_>
                <_>
                  22 11 3 2 3.</_></rects>
              <tilted>0</tilted></feature>
            <threshold>0.0210704095661640</threshold>
            <left_val>0.0424064695835114</left_val>
            <right_val>-0.5654969811439514</right_val></_></_>
        <_>
          <!-- tree 10 -->
          <_>
            <!-- root node -->
            <feature>
              <rects>
                <_>
                  0 9 3 6 -1.</_>
                <_>
                  0 11 3 2 3.</_></rects>
              <tilted>0</tilted></feature>
            <threshold>-9.1816084459424019e-003</threshold>
            <left_val>-0.6186342239379883</left_val>
            <right_val>0.0886460766196251</right_val></_></_>
        <_>
          <!-- tree 11 -->
          <_>
            <!-- root node -->
            <feature>
              <rects>
                <_>
                  0 3 25 4 -1.</_>
                <_>
                  0 4 25 2 2.</_></rects>
              <tilted>0</tilted></feature>
            <threshold>0.0193147007375956</threshold>
            <left_val>-0.1502164006233215</left_val>
            <right_val>0.3618681132793427</right_val></_></_>
        <_>
          <!-- tree 12 -->
          <_>
            <!-- root node -->
            <feature>
              <rects>
                <_>
                  4 6 17 3 -1.</_>
                <_>
                  4 7 17 1 3.</_></rects>
              <tilted>0</tilted></feature>
            <threshold>0.0163078792393208</threshold>
            <left_val>-0.1447259038686752</left_val>
            <right_val>0.3611144125461578</right_val></_></_>
        <_>
          <!-- tree 13 -->
          <_>
            <!-- root node -->
            <feature>
              <rects>
                <_>
                  23 11 2 2 -1.</_>
                <_>
                  23 11 2 1 2.</_></rects>
              <tilted>1</tilted></feature>
            <threshold>-6.4712418243288994e-003</threshold>
            <left_val>-0.6059551239013672</left_val>
            <right_val>0.0563350915908813</right_val></_></_>
        <_>
          <!-- tree 14 -->
          <_>
            <!-- root node -->
            <feature>
              <rects>
                <_>
                  2 11 2 2 -1.</_>
                <_>
                  2 11 1 2 2.</_></rects>
              <tilted>1</tilted></feature>
            <threshold>4.0357890538871288e-003</threshold>
            <left_val>0.0862712934613228</left_val>
            <right_val>-0.5622962117195129</right_val></_></_>
        <_>
          <!-- tree 15 -->
          <_>
            <!-- root node -->
            <feature>
              <rects>
                <_>
                  19 0 6 8 -1.</_>
                <_>
                  19 4 6 4 2.</_></rects>
              <tilted>0</tilted></feature>
            <threshold>-0.0486461706459522</threshold>
            <left_val>0.1385398060083389</left_val>
            <right_val>-0.1172571033239365</right_val></_></_>
        <_>
          <!-- tree 16 -->
          <_>
            <!-- root node -->
            <feature>
              <rects>
                <_>
                  0 0 5 2 -1.</_>
                <_>
                  0 1 5 1 2.</_></rects>
              <tilted>0</tilted></feature>
            <threshold>3.9531029760837555e-003</threshold>
            <left_val>0.0661847889423370</left_val>
            <right_val>-0.6117576956748962</right_val></_></_>
        <_>
          <!-- tree 17 -->
          <_>
            <!-- root node -->
            <feature>
              <rects>
                <_>
                  8 11 9 2 -1.</_>
                <_>
                  8 12 9 1 2.</_></rects>
              <tilted>0</tilted></feature>
            <threshold>-6.3341800123453140e-003</threshold>
            <left_val>0.3384025990962982</left_val>
            <right_val>-0.1351372003555298</right_val></_></_>
        <_>
          <!-- tree 18 -->
          <_>
            <!-- root node -->
            <feature>
              <rects>
                <_>
                  2 7 6 8 -1.</_>
                <_>
                  2 7 3 4 2.</_>
                <_>
                  5 11 3 4 2.</_></rects>
              <tilted>0</tilted></feature>
            <threshold>9.7017548978328705e-003</threshold>
            <left_val>-0.1440878957509995</left_val>
            <right_val>0.3008446097373962</right_val></_></_>
        <_>
          <!-- tree 19 -->
          <_>
            <!-- root node -->
            <feature>
              <rects>
                <_>
                  1 0 24 12 -1.</_>
                <_>
                  13 0 12 6 2.</_>
                <_>
                  1 6 12 6 2.</_></rects>
              <tilted>0</tilted></feature>
            <threshold>0.1373745054006577</threshold>
            <left_val>0.0789669826626778</left_val>
            <right_val>-0.5439950227737427</right_val></_></_>
        <_>
          <!-- tree 20 -->
          <_>
            <!-- root node -->
            <feature>
              <rects>
                <_>
                  1 1 10 8 -1.</_>
                <_>
                  1 1 5 4 2.</_>
                <_>
                  6 5 5 4 2.</_></rects>
              <tilted>0</tilted></feature>
            <threshold>0.0340492799878120</threshold>
            <left_val>-0.1355051994323731</left_val>
            <right_val>0.3101440966129303</right_val></_></_>
        <_>
          <!-- tree 21 -->
          <_>
            <!-- root node -->
            <feature>
              <rects>
                <_>
                  1 8 24 7 -1.</_>
                <_>
                  7 8 12 7 2.</_></rects>
              <tilted>0</tilted></feature>
            <threshold>-0.0830756425857544</threshold>
            <left_val>0.3310371041297913</left_val>
            <right_val>-0.1065424978733063</right_val></_></_>
        <_>
          <!-- tree 22 -->
          <_>
            <!-- root node -->
            <feature>
              <rects>
                <_>
                  0 11 6 4 -1.</_>
                <_>
                  0 12 6 2 2.</_></rects>
              <tilted>0</tilted></feature>
            <threshold>0.0100039895623922</threshold>
            <left_val>0.0535215213894844</left_val>
            <right_val>-0.6544318199157715</right_val></_></_>
        <_>
          <!-- tree 23 -->
          <_>
            <!-- root node -->
            <feature>
              <rects>
                <_>
                  1 2 24 10 -1.</_>
                <_>
                  7 2 12 10 2.</_></rects>
              <tilted>0</tilted></feature>
            <threshold>0.0985341072082520</threshold>
            <left_val>-0.1450466960668564</left_val>
            <right_val>0.2631961107254028</right_val></_></_>
        <_>
          <!-- tree 24 -->
          <_>
            <!-- root node -->
            <feature>
              <rects>
                <_>
                  4 11 3 1 -1.</_>
                <_>
                  5 12 1 1 3.</_></rects>
              <tilted>1</tilted></feature>
            <threshold>-3.4605020191520452e-003</threshold>
            <left_val>-0.5634390115737915</left_val>
            <right_val>0.0596538893878460</right_val></_></_>
        <_>
          <!-- tree 25 -->
          <_>
            <!-- root node -->
            <feature>
              <rects>
                <_>
                  15 0 10 4 -1.</_>
                <_>
                  15 0 5 4 2.</_></rects>
              <tilted>1</tilted></feature>
            <threshold>0.1947017014026642</threshold>
            <left_val>1.6412880504503846e-003</left_val>
            <right_val>-0.4110256135463715</right_val></_></_>
        <_>
          <!-- tree 26 -->
          <_>
            <!-- root node -->
            <feature>
              <rects>
                <_>
                  3 0 2 2 -1.</_>
                <_>
                  3 0 2 1 2.</_></rects>
              <tilted>1</tilted></feature>
            <threshold>8.4933303296566010e-003</threshold>
            <left_val>0.0560018382966518</left_val>
            <right_val>-0.5764415860176086</right_val></_></_>
        <_>
          <!-- tree 27 -->
          <_>
            <!-- root node -->
            <feature>
              <rects>
                <_>
                  17 7 8 1 -1.</_>
                <_>
                  19 7 4 1 2.</_></rects>
              <tilted>0</tilted></feature>
            <threshold>2.7894820086658001e-003</threshold>
            <left_val>-0.0857985764741898</left_val>
            <right_val>0.2230609059333801</right_val></_></_>
        <_>
          <!-- tree 28 -->
          <_>
            <!-- root node -->
            <feature>
              <rects>
                <_>
                  0 7 8 1 -1.</_>
                <_>
                  2 7 4 1 2.</_></rects>
              <tilted>0</tilted></feature>
            <threshold>2.3641549050807953e-003</threshold>
            <left_val>-0.1065978035330772</left_val>
            <right_val>0.2907586991786957</right_val></_></_>
        <_>
          <!-- tree 29 -->
          <_>
            <!-- root node -->
            <feature>
              <rects>
                <_>
                  10 4 8 9 -1.</_>
                <_>
                  12 4 4 9 2.</_></rects>
              <tilted>0</tilted></feature>
            <threshold>0.0531032197177410</threshold>
            <left_val>0.0365768894553185</left_val>
            <right_val>-0.6962323188781738</right_val></_></_>
        <_>
          <!-- tree 30 -->
          <_>
            <!-- root node -->
            <feature>
              <rects>
                <_>
                  6 4 9 9 -1.</_>
                <_>
                  9 4 3 9 3.</_></rects>
              <tilted>0</tilted></feature>
            <threshold>0.0782878771424294</threshold>
            <left_val>0.0354009009897709</left_val>
            <right_val>-0.7592623829841614</right_val></_></_>
        <_>
          <!-- tree 31 -->
          <_>
            <!-- root node -->
            <feature>
              <rects>
                <_>
                  24 1 1 9 -1.</_>
                <_>
                  24 4 1 3 3.</_></rects>
              <tilted>0</tilted></feature>
            <threshold>-2.7237790636718273e-003</threshold>
            <left_val>0.0669721364974976</left_val>
            <right_val>-0.1319473981857300</right_val></_></_>
        <_>
          <!-- tree 32 -->
          <_>
            <!-- root node -->
            <feature>
              <rects>
                <_>
                  9 11 7 3 -1.</_>
                <_>
                  9 12 7 1 3.</_></rects>
              <tilted>0</tilted></feature>
            <threshold>7.1768299676477909e-003</threshold>
            <left_val>-0.0910808295011520</left_val>
            <right_val>0.3523739874362946</right_val></_></_>
        <_>
          <!-- tree 33 -->
          <_>
            <!-- root node -->
            <feature>
              <rects>
                <_>
                  24 1 1 9 -1.</_>
                <_>
                  24 4 1 3 3.</_></rects>
              <tilted>0</tilted></feature>
            <threshold>8.9759882539510727e-003</threshold>
            <left_val>0.0237673893570900</left_val>
            <right_val>-0.1604319959878922</right_val></_></_>
        <_>
          <!-- tree 34 -->
          <_>
            <!-- root node -->
            <feature>
              <rects>
                <_>
                  0 1 1 9 -1.</_>
                <_>
                  0 4 1 3 3.</_></rects>
              <tilted>0</tilted></feature>
            <threshold>9.1885244473814964e-003</threshold>
            <left_val>0.0567586496472359</left_val>
            <right_val>-0.5397397875785828</right_val></_></_>
        <_>
          <!-- tree 35 -->
          <_>
            <!-- root node -->
            <feature>
              <rects>
                <_>
                  1 6 23 2 -1.</_>
                <_>
                  1 7 23 1 2.</_></rects>
              <tilted>0</tilted></feature>
            <threshold>-0.0226985104382038</threshold>
            <left_val>0.3565942049026489</left_val>
            <right_val>-0.0934752374887466</right_val></_></_>
        <_>
          <!-- tree 36 -->
          <_>
            <!-- root node -->
            <feature>
              <rects>
                <_>
                  0 6 8 1 -1.</_>
                <_>
                  4 6 4 1 2.</_></rects>
              <tilted>0</tilted></feature>
            <threshold>-0.0124906599521637</threshold>
            <left_val>0.4129369854927063</left_val>
            <right_val>-0.0719331577420235</right_val></_></_>
        <_>
          <!-- tree 37 -->
          <_>
            <!-- root node -->
            <feature>
              <rects>
                <_>
                  7 1 11 6 -1.</_>
                <_>
                  7 3 11 2 3.</_></rects>
              <tilted>0</tilted></feature>
            <threshold>-0.1164850965142250</threshold>
            <left_val>0.5022385716438294</left_val>
            <right_val>-0.0568802393972874</right_val></_></_></trees>
      <stage_threshold>-1.4853700399398804</stage_threshold>
      <parent>3</parent>
      <next>-1</next></_>
    <_>
      <!-- stage 5 -->
      <trees>
        <_>
          <!-- tree 0 -->
          <_>
            <!-- root node -->
            <feature>
              <rects>
                <_>
                  1 3 23 6 -1.</_>
                <_>
                  1 5 23 2 3.</_></rects>
              <tilted>0</tilted></feature>
            <threshold>-0.1786956936120987</threshold>
            <left_val>0.7206202149391174</left_val>
            <right_val>-0.3004237115383148</right_val></_></_>
        <_>
          <!-- tree 1 -->
          <_>
            <!-- root node -->
            <feature>
              <rects>
                <_>
                  1 5 23 2 -1.</_>
                <_>
                  1 6 23 1 2.</_></rects>
              <tilted>0</tilted></feature>
            <threshold>-0.0337006300687790</threshold>
            <left_val>0.6447432041168213</left_val>
            <right_val>-0.1580080986022949</right_val></_></_>
        <_>
          <!-- tree 2 -->
          <_>
            <!-- root node -->
            <feature>
              <rects>
                <_>
                  2 2 21 6 -1.</_>
                <_>
                  2 4 21 2 3.</_></rects>
              <tilted>0</tilted></feature>
            <threshold>-0.1642684042453766</threshold>
            <left_val>0.6589725017547607</left_val>
            <right_val>-0.1921423971652985</right_val></_></_>
        <_>
          <!-- tree 3 -->
          <_>
            <!-- root node -->
            <feature>
              <rects>
                <_>
                  4 6 17 4 -1.</_>
                <_>
                  4 7 17 2 2.</_></rects>
              <tilted>0</tilted></feature>
            <threshold>-0.0417527891695499</threshold>
            <left_val>0.5909292101860046</left_val>
            <right_val>-0.1014109998941422</right_val></_></_>
        <_>
          <!-- tree 4 -->
          <_>
            <!-- root node -->
            <feature>
              <rects>
                <_>
                  1 5 6 10 -1.</_>
                <_>
                  1 10 6 5 2.</_></rects>
              <tilted>0</tilted></feature>
            <threshold>0.0117815900593996</threshold>
            <left_val>-0.3373943865299225</left_val>
            <right_val>0.1761005967855454</right_val></_></_>
        <_>
          <!-- tree 5 -->
          <_>
            <!-- root node -->
            <feature>
              <rects>
                <_>
                  8 7 9 3 -1.</_>
                <_>
                  8 8 9 1 3.</_></rects>
              <tilted>0</tilted></feature>
            <threshold>0.0111488103866577</threshold>
            <left_val>-0.1675364971160889</left_val>
            <right_val>0.3534817993640900</right_val></_></_>
        <_>
          <!-- tree 6 -->
          <_>
            <!-- root node -->
            <feature>
              <rects>
                <_>
                  7 4 11 6 -1.</_>
                <_>
                  7 6 11 2 3.</_></rects>
              <tilted>0</tilted></feature>
            <threshold>0.1107325032353401</threshold>
            <left_val>-0.0908098220825195</left_val>
            <right_val>0.6684880256652832</right_val></_></_>
        <_>
          <!-- tree 7 -->
          <_>
            <!-- root node -->
            <feature>
              <rects>
                <_>
                  19 7 6 8 -1.</_>
                <_>
                  19 11 6 4 2.</_></rects>
              <tilted>0</tilted></feature>
            <threshold>8.9323697611689568e-003</threshold>
            <left_val>-0.2238949984312058</left_val>
            <right_val>0.1843969970941544</right_val></_></_>
        <_>
          <!-- tree 8 -->
          <_>
            <!-- root node -->
            <feature>
              <rects>
                <_>
                  4 11 2 2 -1.</_>
                <_>
                  4 11 1 2 2.</_></rects>
              <tilted>1</tilted></feature>
            <threshold>-4.3564462102949619e-003</threshold>
            <left_val>-0.5822364091873169</left_val>
            <right_val>0.1070977970957756</right_val></_></_>
        <_>
          <!-- tree 9 -->
          <_>
            <!-- root node -->
            <feature>
              <rects>
                <_>
                  1 1 24 14 -1.</_>
                <_>
                  13 1 12 7 2.</_>
                <_>
                  1 8 12 7 2.</_></rects>
              <tilted>0</tilted></feature>
            <threshold>0.1247885972261429</threshold>
            <left_val>0.1179665997624397</left_val>
            <right_val>-0.5435186028480530</right_val></_></_>
        <_>
          <!-- tree 10 -->
          <_>
            <!-- root node -->
            <feature>
              <rects>
                <_>
                  6 4 10 4 -1.</_>
                <_>
                  11 4 5 4 2.</_></rects>
              <tilted>0</tilted></feature>
            <threshold>8.6016254499554634e-003</threshold>
            <left_val>-0.2336153984069824</left_val>
            <right_val>0.2124675065279007</right_val></_></_>
        <_>
          <!-- tree 11 -->
          <_>
            <!-- root node -->
            <feature>
              <rects>
                <_>
                  8 8 9 4 -1.</_>
                <_>
                  8 9 9 2 2.</_></rects>
              <tilted>0</tilted></feature>
            <threshold>0.0134456101804972</threshold>
            <left_val>-0.1836609989404678</left_val>
            <right_val>0.2923094928264618</right_val></_></_>
        <_>
          <!-- tree 12 -->
          <_>
            <!-- root node -->
            <feature>
              <rects>
                <_>
                  5 11 2 2 -1.</_>
                <_>
                  5 11 1 2 2.</_></rects>
              <tilted>1</tilted></feature>
            <threshold>4.3747760355472565e-003</threshold>
            <left_val>0.0876920595765114</left_val>
            <right_val>-0.5790253281593323</right_val></_></_>
        <_>
          <!-- tree 13 -->
          <_>
            <!-- root node -->
            <feature>
              <rects>
                <_>
                  12 12 6 3 -1.</_>
                <_>
                  14 12 2 3 3.</_></rects>
              <tilted>0</tilted></feature>
            <threshold>0.0101080099120736</threshold>
            <left_val>0.0582526400685310</left_val>
            <right_val>-0.5079802274703980</right_val></_></_>
        <_>
          <!-- tree 14 -->
          <_>
            <!-- root node -->
            <feature>
              <rects>
                <_>
                  0 0 24 12 -1.</_>
                <_>
                  6 0 12 12 2.</_></rects>
              <tilted>0</tilted></feature>
            <threshold>-0.2037680000066757</threshold>
            <left_val>0.3651061952114105</left_val>
            <right_val>-0.1022650003433228</right_val></_></_>
        <_>
          <!-- tree 15 -->
          <_>
            <!-- root node -->
            <feature>
              <rects>
                <_>
                  22 0 2 4 -1.</_>
                <_>
                  22 0 1 4 2.</_></rects>
              <tilted>1</tilted></feature>
            <threshold>5.5434498790418729e-005</threshold>
            <left_val>-0.1189028993248940</left_val>
            <right_val>0.0799400508403778</right_val></_></_>
        <_>
          <!-- tree 16 -->
          <_>
            <!-- root node -->
            <feature>
              <rects>
                <_>
                  4 0 1 2 -1.</_>
                <_>
                  4 0 1 1 2.</_></rects>
              <tilted>1</tilted></feature>
            <threshold>-2.0570589695125818e-003</threshold>
            <left_val>-0.5541607737541199</left_val>
            <right_val>0.0597651414573193</right_val></_></_>
        <_>
          <!-- tree 17 -->
          <_>
            <!-- root node -->
            <feature>
              <rects>
                <_>
                  7 10 11 3 -1.</_>
                <_>
                  7 11 11 1 3.</_></rects>
              <tilted>0</tilted></feature>
            <threshold>0.0127873001620173</threshold>
            <left_val>-0.0994593426585197</left_val>
            <right_val>0.3665609061717987</right_val></_></_>
        <_>
          <!-- tree 18 -->
          <_>
            <!-- root node -->
            <feature>
              <rects>
                <_>
                  7 8 11 6 -1.</_>
                <_>
                  7 10 11 2 3.</_></rects>
              <tilted>0</tilted></feature>
            <threshold>-0.0345155782997608</threshold>
            <left_val>0.3233458101749420</left_val>
            <right_val>-0.1024350970983505</right_val></_></_>
        <_>
          <!-- tree 19 -->
          <_>
            <!-- root node -->
            <feature>
              <rects>
                <_>
                  10 14 6 1 -1.</_>
                <_>
                  12 14 2 1 3.</_></rects>
              <tilted>0</tilted></feature>
            <threshold>4.2239967733621597e-003</threshold>
            <left_val>0.0631455704569817</left_val>
            <right_val>-0.5500234961509705</right_val></_></_>
        <_>
          <!-- tree 20 -->
          <_>
            <!-- root node -->
            <feature>
              <rects>
                <_>
                  3 0 2 3 -1.</_>
                <_>
                  2 1 2 1 3.</_></rects>
              <tilted>1</tilted></feature>
            <threshold>-7.2366259992122650e-003</threshold>
            <left_val>-0.6408345103263855</left_val>
            <right_val>0.0465348288416862</right_val></_></_>
        <_>
          <!-- tree 21 -->
          <_>
            <!-- root node -->
            <feature>
              <rects>
                <_>
                  21 5 4 10 -1.</_>
                <_>
                  23 5 2 5 2.</_>
                <_>
                  21 10 2 5 2.</_></rects>
              <tilted>0</tilted></feature>
            <threshold>-0.0201258193701506</threshold>
            <left_val>0.2889750897884369</left_val>
            <right_val>-0.0566558204591274</right_val></_></_>
        <_>
          <!-- tree 22 -->
          <_>
            <!-- root node -->
            <feature>
              <rects>
                <_>
                  0 6 4 6 -1.</_>
                <_>
                  0 6 2 3 2.</_>
                <_>
                  2 9 2 3 2.</_></rects>
              <tilted>0</tilted></feature>
            <threshold>5.7656159624457359e-003</threshold>
            <left_val>-0.1384972929954529</left_val>
            <right_val>0.2334675937891007</right_val></_></_>
        <_>
          <!-- tree 23 -->
          <_>
            <!-- root node -->
            <feature>
              <rects>
                <_>
                  21 10 1 4 -1.</_>
                <_>
                  20 11 1 2 2.</_></rects>
              <tilted>1</tilted></feature>
            <threshold>6.8347910419106483e-003</threshold>
            <left_val>0.0330508686602116</left_val>
            <right_val>-0.4528526961803436</right_val></_></_>
        <_>
          <!-- tree 24 -->
          <_>
            <!-- root node -->
            <feature>
              <rects>
                <_>
                  4 10 4 1 -1.</_>
                <_>
                  5 11 2 1 2.</_></rects>
              <tilted>1</tilted></feature>
            <threshold>-5.4385690018534660e-003</threshold>
            <left_val>-0.6468045115470886</left_val>
            <right_val>0.0472561083734035</right_val></_></_>
        <_>
          <!-- tree 25 -->
          <_>
            <!-- root node -->
            <feature>
              <rects>
                <_>
                  9 8 9 7 -1.</_>
                <_>
                  12 8 3 7 3.</_></rects>
              <tilted>0</tilted></feature>
            <threshold>-0.0489467717707157</threshold>
            <left_val>-0.5228503942489624</left_val>
            <right_val>0.0368301495909691</right_val></_></_>
        <_>
          <!-- tree 26 -->
          <_>
            <!-- root node -->
            <feature>
              <rects>
                <_>
                  8 1 1 14 -1.</_>
                <_>
                  8 8 1 7 2.</_></rects>
              <tilted>0</tilted></feature>
            <threshold>-0.0242400392889977</threshold>
            <left_val>-0.6372395157814026</left_val>
            <right_val>0.0446589589118958</right_val></_></_>
        <_>
          <!-- tree 27 -->
          <_>
            <!-- root node -->
            <feature>
              <rects>
                <_>
                  6 3 13 6 -1.</_>
                <_>
                  6 5 13 2 3.</_></rects>
              <tilted>0</tilted></feature>
            <threshold>0.0932770371437073</threshold>
            <left_val>-0.0772300064563751</left_val>
            <right_val>0.4694992899894714</right_val></_></_>
        <_>
          <!-- tree 28 -->
          <_>
            <!-- root node -->
            <feature>
              <rects>
                <_>
                  2 1 21 6 -1.</_>
                <_>
                  2 3 21 2 3.</_></rects>
              <tilted>0</tilted></feature>
            <threshold>0.0637116432189941</threshold>
            <left_val>-0.1089148968458176</left_val>
            <right_val>0.3022153973579407</right_val></_></_>
        <_>
          <!-- tree 29 -->
          <_>
            <!-- root node -->
            <feature>
              <rects>
                <_>
                  3 0 20 15 -1.</_>
                <_>
                  3 0 10 15 2.</_></rects>
              <tilted>0</tilted></feature>
            <threshold>0.2733879089355469</threshold>
            <left_val>-0.0797636136412621</left_val>
            <right_val>0.3726746141910553</right_val></_></_>
        <_>
          <!-- tree 30 -->
          <_>
            <!-- root node -->
            <feature>
              <rects>
                <_>
                  1 2 23 2 -1.</_>
                <_>
                  1 3 23 1 2.</_></rects>
              <tilted>0</tilted></feature>
            <threshold>-0.0369445383548737</threshold>
            <left_val>0.4667069911956787</left_val>
            <right_val>-0.0708119571208954</right_val></_></_>
        <_>
          <!-- tree 31 -->
          <_>
            <!-- root node -->
            <feature>
              <rects>
                <_>
                  10 9 12 4 -1.</_>
                <_>
                  10 9 6 4 2.</_></rects>
              <tilted>0</tilted></feature>
            <threshold>0.0568126998841763</threshold>
            <left_val>-0.0310560092329979</left_val>
            <right_val>0.2268889993429184</right_val></_></_>
        <_>
          <!-- tree 32 -->
          <_>
            <!-- root node -->
            <feature>
              <rects>
                <_>
                  3 10 14 3 -1.</_>
                <_>
                  10 10 7 3 2.</_></rects>
              <tilted>0</tilted></feature>
            <threshold>0.0495897717773914</threshold>
            <left_val>-0.0998308584094048</left_val>
            <right_val>0.3711166083812714</right_val></_></_>
        <_>
          <!-- tree 33 -->
          <_>
            <!-- root node -->
            <feature>
              <rects>
                <_>
                  2 11 21 2 -1.</_>
                <_>
                  9 11 7 2 3.</_></rects>
              <tilted>0</tilted></feature>
            <threshold>-0.0159185696393251</threshold>
            <left_val>0.2139075994491577</left_val>
            <right_val>-0.1596436947584152</right_val></_></_>
        <_>
          <!-- tree 34 -->
          <_>
            <!-- root node -->
            <feature>
              <rects>
                <_>
                  7 10 6 4 -1.</_>
                <_>
                  9 10 2 4 3.</_></rects>
              <tilted>0</tilted></feature>
            <threshold>-0.0196496006101370</threshold>
            <left_val>-0.6731212735176086</left_val>
            <right_val>0.0455616712570190</right_val></_></_>
        <_>
          <!-- tree 35 -->
          <_>
            <!-- root node -->
            <feature>
              <rects>
                <_>
                  8 6 9 3 -1.</_>
                <_>
                  8 7 9 1 3.</_></rects>
              <tilted>0</tilted></feature>
            <threshold>8.4730349481105804e-003</threshold>
            <left_val>-0.1220254004001617</left_val>
            <right_val>0.2589237093925476</right_val></_></_>
        <_>
          <!-- tree 36 -->
          <_>
            <!-- root node -->
            <feature>
              <rects>
                <_>
                  1 0 1 2 -1.</_>
                <_>
                  1 1 1 1 2.</_></rects>
              <tilted>0</tilted></feature>
            <threshold>-5.2527568186633289e-005</threshold>
            <left_val>0.1474023014307022</left_val>
            <right_val>-0.1949717998504639</right_val></_></_>
        <_>
          <!-- tree 37 -->
          <_>
            <!-- root node -->
            <feature>
              <rects>
                <_>
                  20 11 5 4 -1.</_>
                <_>
                  20 12 5 2 2.</_></rects>
              <tilted>0</tilted></feature>
            <threshold>0.0107139497995377</threshold>
            <left_val>0.0365085788071156</left_val>
            <right_val>-0.6428282856941223</right_val></_></_>
        <_>
          <!-- tree 38 -->
          <_>
            <!-- root node -->
            <feature>
              <rects>
                <_>
                  6 9 13 3 -1.</_>
                <_>
                  6 10 13 1 3.</_></rects>
              <tilted>0</tilted></feature>
            <threshold>0.0106353601440787</threshold>
            <left_val>-0.1237889975309372</left_val>
            <right_val>0.2460211962461472</right_val></_></_>
        <_>
          <!-- tree 39 -->
          <_>
            <!-- root node -->
            <feature>
              <rects>
                <_>
                  20 11 5 4 -1.</_>
                <_>
                  20 12 5 2 2.</_></rects>
              <tilted>0</tilted></feature>
            <threshold>-7.2086369618773460e-003</threshold>
            <left_val>-0.3893218040466309</left_val>
            <right_val>0.0580187812447548</right_val></_></_></trees>
      <stage_threshold>-1.5054810047149658</stage_threshold>
      <parent>4</parent>
      <next>-1</next></_>
    <_>
      <!-- stage 6 -->
      <trees>
        <_>
          <!-- tree 0 -->
          <_>
            <!-- root node -->
            <feature>
              <rects>
                <_>
                  0 0 7 8 -1.</_>
                <_>
                  0 4 7 4 2.</_></rects>
              <tilted>0</tilted></feature>
            <threshold>-0.0168494991958141</threshold>
            <left_val>0.2521196007728577</left_val>
            <right_val>-0.5578358769416809</right_val></_></_>
        <_>
          <!-- tree 1 -->
          <_>
            <!-- root node -->
            <feature>
              <rects>
                <_>
                  1 3 23 6 -1.</_>
                <_>
                  1 5 23 2 3.</_></rects>
              <tilted>0</tilted></feature>
            <threshold>-0.2402160018682480</threshold>
            <left_val>0.4933631122112274</left_val>
            <right_val>-0.1672964990139008</right_val></_></_>
        <_>
          <!-- tree 2 -->
          <_>
            <!-- root node -->
            <feature>
              <rects>
                <_>
                  0 5 4 10 -1.</_>
                <_>
                  0 5 2 5 2.</_>
                <_>
                  2 10 2 5 2.</_></rects>
              <tilted>0</tilted></feature>
            <threshold>6.6634528338909149e-003</threshold>
            <left_val>-0.2278317064046860</left_val>
            <right_val>0.2701162099838257</right_val></_></_>
        <_>
          <!-- tree 3 -->
          <_>
            <!-- root node -->
            <feature>
              <rects>
                <_>
                  24 7 1 8 -1.</_>
                <_>
                  24 9 1 4 2.</_></rects>
              <tilted>0</tilted></feature>
            <threshold>8.7856547906994820e-005</threshold>
            <left_val>-0.2360071986913681</left_val>
            <right_val>0.1332903951406479</right_val></_></_>
        <_>
          <!-- tree 4 -->
          <_>
            <!-- root node -->
            <feature>
              <rects>
                <_>
                  0 9 2 6 -1.</_>
                <_>
                  0 11 2 2 3.</_></rects>
              <tilted>0</tilted></feature>
            <threshold>-6.3314889557659626e-003</threshold>
            <left_val>-0.5856627225875855</left_val>
            <right_val>0.1124883964657784</right_val></_></_>
        <_>
          <!-- tree 5 -->
          <_>
            <!-- root node -->
            <feature>
              <rects>
                <_>
                  19 10 6 4 -1.</_>
                <_>
                  19 11 6 2 2.</_></rects>
              <tilted>0</tilted></feature>
            <threshold>0.0111258802935481</threshold>
            <left_val>0.0549462586641312</left_val>
            <right_val>-0.5395172834396362</right_val></_></_>
        <_>
          <!-- tree 6 -->
          <_>
            <!-- root node -->
            <feature>
              <rects>
                <_>
                  0 8 2 4 -1.</_>
                <_>
                  0 9 2 2 2.</_></rects>
              <tilted>0</tilted></feature>
            <threshold>-2.2687350865453482e-003</threshold>
            <left_val>-0.5013924241065979</left_val>
            <right_val>0.0921374708414078</right_val></_></_>
        <_>
          <!-- tree 7 -->
          <_>
            <!-- root node -->
            <feature>
              <rects>
                <_>
                  4 13 17 2 -1.</_>
                <_>
                  4 14 17 1 2.</_></rects>
              <tilted>0</tilted></feature>
            <threshold>5.6765847839415073e-003</threshold>
            <left_val>-0.2080563008785248</left_val>
            <right_val>0.2405633032321930</right_val></_></_>
        <_>
          <!-- tree 8 -->
          <_>
            <!-- root node -->
            <feature>
              <rects>
                <_>
                  6 4 13 4 -1.</_>
                <_>
                  6 6 13 2 2.</_></rects>
              <tilted>0</tilted></feature>
            <threshold>0.0921386182308197</threshold>
            <left_val>-0.0617073886096478</left_val>
            <right_val>0.4915873110294342</right_val></_></_>
        <_>
          <!-- tree 9 -->
          <_>
            <!-- root node -->
            <feature>
              <rects>
                <_>
                  1 5 23 4 -1.</_>
                <_>
                  1 6 23 2 2.</_></rects>
              <tilted>0</tilted></feature>
            <threshold>-0.0595571883022785</threshold>
            <left_val>0.3786092102527618</left_val>
            <right_val>-0.1695057004690170</right_val></_></_>
        <_>
          <!-- tree 10 -->
          <_>
            <!-- root node -->
            <feature>
              <rects>
                <_>
                  0 0 7 3 -1.</_>
                <_>
                  0 1 7 1 3.</_></rects>
              <tilted>0</tilted></feature>
            <threshold>-0.0120530901476741</threshold>
            <left_val>-0.7487422823905945</left_val>
            <right_val>0.0465855412185192</right_val></_></_>
        <_>
          <!-- tree 11 -->
          <_>
            <!-- root node -->
            <feature>
              <rects>
                <_>
                  20 0 4 3 -1.</_>
                <_>
                  20 1 4 1 3.</_></rects>
              <tilted>0</tilted></feature>
            <threshold>0.0134327802807093</threshold>
            <left_val>0.0213491804897785</left_val>
            <right_val>-0.8042839169502258</right_val></_></_>
        <_>
          <!-- tree 12 -->
          <_>
            <!-- root node -->
            <feature>
              <rects>
                <_>
                  1 0 4 3 -1.</_>
                <_>
                  1 1 4 1 3.</_></rects>
              <tilted>0</tilted></feature>
            <threshold>5.4001468233764172e-003</threshold>
            <left_val>0.0638738200068474</left_val>
            <right_val>-0.6093984246253967</right_val></_></_>
        <_>
          <!-- tree 13 -->
          <_>
            <!-- root node -->
            <feature>
              <rects>
                <_>
                  7 6 11 6 -1.</_>
                <_>
                  7 8 11 2 3.</_></rects>
              <tilted>0</tilted></feature>
            <threshold>-0.0832898020744324</threshold>
            <left_val>0.4469259977340698</left_val>
            <right_val>-0.0907661989331245</right_val></_></_>
        <_>
          <!-- tree 14 -->
          <_>
            <!-- root node -->
            <feature>
              <rects>
                <_>
                  9 0 2 2 -1.</_>
                <_>
                  9 1 2 1 2.</_></rects>
              <tilted>0</tilted></feature>
            <threshold>4.3739439570344985e-004</threshold>
            <left_val>-0.1626328974962235</left_val>
            <right_val>0.2410700023174286</right_val></_></_>
        <_>
          <!-- tree 15 -->
          <_>
            <!-- root node -->
            <feature>
              <rects>
                <_>
                  9 8 7 3 -1.</_>
                <_>
                  9 9 7 1 3.</_></rects>
              <tilted>0</tilted></feature>
            <threshold>7.7823479659855366e-003</threshold>
            <left_val>-0.1421532928943634</left_val>
            <right_val>0.2635194957256317</right_val></_></_>
        <_>
          <!-- tree 16 -->
          <_>
            <!-- root node -->
            <feature>
              <rects>
                <_>
                  1 5 8 3 -1.</_>
                <_>
                  5 5 4 3 2.</_></rects>
              <tilted>0</tilted></feature>
            <threshold>-0.0303384400904179</threshold>
            <left_val>0.4237344861030579</left_val>
            <right_val>-0.0850471109151840</right_val></_></_>
        <_>
          <!-- tree 17 -->
          <_>
            <!-- root node -->
            <feature>
              <rects>
                <_>
                  17 3 8 12 -1.</_>
                <_>
                  21 3 4 6 2.</_>
                <_>
                  17 9 4 6 2.</_></rects>
              <tilted>0</tilted></feature>
            <threshold>-0.0242336094379425</threshold>
            <left_val>0.2156825065612793</left_val>
            <right_val>-0.1270917057991028</right_val></_></_>
        <_>
          <!-- tree 18 -->
          <_>
            <!-- root node -->
            <feature>
              <rects>
                <_>
                  1 11 3 1 -1.</_>
                <_>
                  2 12 1 1 3.</_></rects>
              <tilted>1</tilted></feature>
            <threshold>-3.3063080627471209e-003</threshold>
            <left_val>-0.5499451756477356</left_val>
            <right_val>0.0682448670268059</right_val></_></_>
        <_>
          <!-- tree 19 -->
          <_>
            <!-- root node -->
            <feature>
              <rects>
                <_>
                  10 0 10 1 -1.</_>
                <_>
                  10 0 5 1 2.</_></rects>
              <tilted>0</tilted></feature>
            <threshold>-3.8352799601852894e-003</threshold>
            <left_val>0.1222267970442772</left_val>
            <right_val>-0.0829442515969276</right_val></_></_>
        <_>
          <!-- tree 20 -->
          <_>
            <!-- root node -->
            <feature>
              <rects>
                <_>
                  0 6 24 7 -1.</_>
                <_>
                  6 6 12 7 2.</_></rects>
              <tilted>0</tilted></feature>
            <threshold>0.1586188971996307</threshold>
            <left_val>-0.0899264067411423</left_val>
            <right_val>0.3996031880378723</right_val></_></_>
        <_>
          <!-- tree 21 -->
          <_>
            <!-- root node -->
            <feature>
              <rects>
                <_>
                  0 1 25 8 -1.</_>
                <_>
                  0 3 25 4 2.</_></rects>
              <tilted>0</tilted></feature>
            <threshold>-0.1901596933603287</threshold>
            <left_val>0.3302950859069824</left_val>
            <right_val>-0.1146302968263626</right_val></_></_>
        <_>
          <!-- tree 22 -->
          <_>
            <!-- root node -->
            <feature>
              <rects>
                <_>
                  3 2 6 6 -1.</_>
                <_>
                  3 4 6 2 3.</_></rects>
              <tilted>0</tilted></feature>
            <threshold>6.7577417939901352e-003</threshold>
            <left_val>-0.1502819061279297</left_val>
            <right_val>0.2586522102355957</right_val></_></_>
        <_>
          <!-- tree 23 -->
          <_>
            <!-- root node -->
            <feature>
              <rects>
                <_>
                  21 11 3 3 -1.</_>
                <_>
                  21 12 3 1 3.</_></rects>
              <tilted>0</tilted></feature>
            <threshold>-8.2427356392145157e-003</threshold>
            <left_val>-0.7330238223075867</left_val>
            <right_val>0.0381063707172871</right_val></_></_>
        <_>
          <!-- tree 24 -->
          <_>
            <!-- root node -->
            <feature>
              <rects>
                <_>
                  0 0 2 2 -1.</_>
                <_>
                  0 1 2 1 2.</_></rects>
              <tilted>0</tilted></feature>
            <threshold>-1.8270560758537613e-005</threshold>
            <left_val>0.1342706978321075</left_val>
            <right_val>-0.2355553060770035</right_val></_></_>
        <_>
          <!-- tree 25 -->
          <_>
            <!-- root node -->
            <feature>
              <rects>
                <_>
                  12 1 13 14 -1.</_>
                <_>
                  12 8 13 7 2.</_></rects>
              <tilted>0</tilted></feature>
            <threshold>-0.1674405038356781</threshold>
            <left_val>-0.4938012063503265</left_val>
            <right_val>0.0518239811062813</right_val></_></_>
        <_>
          <!-- tree 26 -->
          <_>
            <!-- root node -->
            <feature>
              <rects>
                <_>
                  0 11 3 3 -1.</_>
                <_>
                  0 12 3 1 3.</_></rects>
              <tilted>0</tilted></feature>
            <threshold>3.3383860718458891e-003</threshold>
            <left_val>0.0612363889813423</left_val>
            <right_val>-0.5027093887329102</right_val></_></_>
        <_>
          <!-- tree 27 -->
          <_>
            <!-- root node -->
            <feature>
              <rects>
                <_>
                  1 0 24 14 -1.</_>
                <_>
                  13 0 12 7 2.</_>
                <_>
                  1 7 12 7 2.</_></rects>
              <tilted>0</tilted></feature>
            <threshold>-0.1983973979949951</threshold>
            <left_val>-0.5415220260620117</left_val>
            <right_val>0.0704274028539658</right_val></_></_>
        <_>
          <!-- tree 28 -->
          <_>
            <!-- root node -->
            <feature>
              <rects>
                <_>
                  0 9 20 6 -1.</_>
                <_>
                  5 9 10 6 2.</_></rects>
              <tilted>0</tilted></feature>
            <threshold>-0.0249986499547958</threshold>
            <left_val>0.2346456050872803</left_val>
            <right_val>-0.1658550947904587</right_val></_></_>
        <_>
          <!-- tree 29 -->
          <_>
            <!-- root node -->
            <feature>
              <rects>
                <_>
                  17 5 1 3 -1.</_>
                <_>
                  17 6 1 1 3.</_></rects>
              <tilted>0</tilted></feature>
            <threshold>1.6690549673512578e-003</threshold>
            <left_val>-0.0589906610548496</left_val>
            <right_val>0.2003753036260605</right_val></_></_>
        <_>
          <!-- tree 30 -->
          <_>
            <!-- root node -->
            <feature>
              <rects>
                <_>
                  8 10 9 4 -1.</_>
                <_>
                  8 11 9 2 2.</_></rects>
              <tilted>0</tilted></feature>
            <threshold>0.0105111403390765</threshold>
            <left_val>-0.0939930677413940</left_val>
            <right_val>0.3066946864128113</right_val></_></_>
        <_>
          <!-- tree 31 -->
          <_>
            <!-- root node -->
            <feature>
              <rects>
                <_>
                  21 9 4 3 -1.</_>
                <_>
                  21 10 4 1 3.</_></rects>
              <tilted>0</tilted></feature>
            <threshold>6.9793318398296833e-003</threshold>
            <left_val>0.0591501295566559</left_val>
            <right_val>-0.4372419118881226</right_val></_></_>
        <_>
          <!-- tree 32 -->
          <_>
            <!-- root node -->
            <feature>
              <rects>
                <_>
                  8 9 9 3 -1.</_>
                <_>
                  8 10 9 1 3.</_></rects>
              <tilted>0</tilted></feature>
            <threshold>7.1740187704563141e-003</threshold>
            <left_val>-0.1251831948757172</left_val>
            <right_val>0.2313541024923325</right_val></_></_>
        <_>
          <!-- tree 33 -->
          <_>
            <!-- root node -->
            <feature>
              <rects>
                <_>
                  8 7 9 3 -1.</_>
                <_>
                  8 8 9 1 3.</_></rects>
              <tilted>0</tilted></feature>
            <threshold>8.3818379789590836e-003</threshold>
            <left_val>-0.1583570986986160</left_val>
            <right_val>0.2508007884025574</right_val></_></_>
        <_>
          <!-- tree 34 -->
          <_>
            <!-- root node -->
            <feature>
              <rects>
                <_>
                  0 8 6 3 -1.</_>
                <_>
                  0 9 6 1 3.</_></rects>
              <tilted>0</tilted></feature>
            <threshold>0.0148150501772761</threshold>
            <left_val>0.0487641915678978</left_val>
            <right_val>-0.6532126069068909</right_val></_></_>
        <_>
          <!-- tree 35 -->
          <_>
            <!-- root node -->
            <feature>
              <rects>
                <_>
                  9 5 9 8 -1.</_>
                <_>
                  12 5 3 8 3.</_></rects>
              <tilted>0</tilted></feature>
            <threshold>0.0818992629647255</threshold>
            <left_val>0.0207941699773073</left_val>
            <right_val>-0.7752823233604431</right_val></_></_>
        <_>
          <!-- tree 36 -->
          <_>
            <!-- root node -->
            <feature>
              <rects>
                <_>
                  0 9 4 3 -1.</_>
                <_>
                  0 10 4 1 3.</_></rects>
              <tilted>0</tilted></feature>
            <threshold>7.5779887847602367e-003</threshold>
            <left_val>0.0442862883210182</left_val>
            <right_val>-0.6144704222679138</right_val></_></_>
        <_>
          <!-- tree 37 -->
          <_>
            <!-- root node -->
            <feature>
              <rects>
                <_>
                  17 5 1 3 -1.</_>
                <_>
                  17 6 1 1 3.</_></rects>
              <tilted>0</tilted></feature>
            <threshold>-1.6276900423690677e-003</threshold>
            <left_val>0.1265867054462433</left_val>
            <right_val>-0.0714268311858177</right_val></_></_>
        <_>
          <!-- tree 38 -->
          <_>
            <!-- root node -->
            <feature>
              <rects>
                <_>
                  7 5 1 3 -1.</_>
                <_>
                  7 6 1 1 3.</_></rects>
              <tilted>0</tilted></feature>
            <threshold>7.9484871821478009e-004</threshold>
            <left_val>-0.1206592991948128</left_val>
            <right_val>0.2770704030990601</right_val></_></_>
        <_>
          <!-- tree 39 -->
          <_>
            <!-- root node -->
            <feature>
              <rects>
                <_>
                  8 5 9 5 -1.</_>
                <_>
                  11 5 3 5 3.</_></rects>
              <tilted>0</tilted></feature>
            <threshold>-0.0365898013114929</threshold>
            <left_val>-0.6378899812698364</left_val>
            <right_val>0.0508255995810032</right_val></_></_>
        <_>
          <!-- tree 40 -->
          <_>
            <!-- root node -->
            <feature>
              <rects>
                <_>
                  0 1 6 3 -1.</_>
                <_>
                  0 2 6 1 3.</_></rects>
              <tilted>0</tilted></feature>
            <threshold>-0.0102326096966863</threshold>
            <left_val>-0.6858724951744080</left_val>
            <right_val>0.0350397601723671</right_val></_></_>
        <_>
          <!-- tree 41 -->
          <_>
            <!-- root node -->
            <feature>
              <rects>
                <_>
